//Numpy array shape [64]
//Min -0.945204555988
//Max 0.511061668396
//Number of zeros 0

#ifndef B2_H_
#define B2_H_

#ifdef __INTELFPGA_COMPILER__
hls_init_on_powerup
#endif
static const model_default_t b2[64] = {-0.0935665295, -0.0659262240, 0.4820465446, -0.2645504177, 0.0722732693, 0.1256490946, -0.2010050714, 0.0070671677, -0.0061080386, 0.0138097014, -0.6959353089, 0.2658424973, 0.1413802803, -0.1751758307, -0.9452045560, 0.1202830225, 0.4101178050, -0.0938758627, 0.4192546606, 0.1968625933, -0.2875278592, -0.2469991446, 0.3055039048, 0.2101784796, 0.1303979903, 0.2516984642, 0.5110616684, 0.0981053337, -0.2399592847, 0.1688591242, -0.0437362976, 0.4242372811, -0.0265468601, 0.5071691275, -0.0467865691, 0.1839679927, 0.2220664322, -0.1115169823, 0.2310470939, -0.1060560644, 0.1257979572, 0.0559285879, 0.3887359798, 0.3799081743, 0.4037117958, 0.0318202972, 0.2079050094, 0.3692719638, 0.2159888148, -0.2683526576, 0.1059061140, -0.1620367914, 0.0881941319, -0.3071663082, 0.0194028541, -0.1238194704, 0.0946473032, 0.3162896335, 0.2285094112, -0.0490697771, 0.1394130737, 0.1343908906, -0.0112715149, 0.0690486208};

#endif
