//Numpy array shape [32, 5]
//Min -1.443226933479
//Max 1.793445825577
//Number of zeros 0

#ifndef W11_H_
#define W11_H_

#ifdef __INTELFPGA_COMPILER__
hls_init_on_powerup
#endif
static const model_default_t w11[160] = {-0.0001314745, -0.6118144393, -0.0000118799, 0.3977668285, 1.1589721441, -0.0313768461, 0.5146040916, -0.4093991220, -0.0000945643, 0.4179303050, -0.0648011342, 0.0614422448, 0.0002037467, -0.0000611819, 0.0001343849, -0.9083410501, -0.0009326570, 0.0129743740, 0.0000464471, -0.0000191719, 0.3079440594, 0.5039833188, -0.0151819168, -0.0000630367, 0.1684587896, -0.0422485955, -0.8091635108, -0.6983376145, -0.1952180117, -0.1416665316, 1.1477359533, 0.0025157912, -0.0001619799, 0.4107171297, 0.0000252894, 0.6069458127, -0.8311021924, -0.0013486468, -0.2615286708, -0.4269408584, -0.0001020683, -0.1393655688, 0.2844409645, 0.0008768045, -0.1230104119, 0.0003353790, -0.1877288520, -0.5949339271, 0.5998709202, -0.0022195140, 0.0001165040, 0.0001065770, -0.2119611949, -0.0012078031, -0.1131995469, 0.0000858381, 0.7647048235, 0.3466746509, -1.0279718637, 0.1253180802, -0.4922729433, -0.0002712742, 0.6293877363, -0.0704092085, -0.0000029826, -0.1157045513, -0.0000644510, -0.4114659727, 0.4339735806, -0.1415586025, -0.5854522586, -0.0399514548, 0.0001643252, 0.1694323421, 0.6216320992, 0.5953418016, -0.0693015307, 0.0000377901, 0.6348975897, 0.3410974443, 0.1460716873, -0.9355783463, -0.0001660121, -0.0000896823, 0.4862930179, 0.1988914162, 0.3706407249, 0.0001990580, -0.7708446980, -0.5350556970, 0.0915897265, -0.0001296228, 0.2674507201, 0.2574521601, -0.4844396114, -0.6997998357, 0.0000156922, 0.2162806541, 0.0000861663, -0.5959652662, -0.5969073176, 0.3339073956, 0.2249044478, 1.7688403130, -0.0000332465, -0.1642095447, -0.5401859879, -0.0060187411, 0.0000593454, 0.0002807129, 0.4386062324, 0.1387263834, -0.6967762113, 0.0421471484, 0.0000635959, -0.0001006074, -1.3541046381, -0.7666691542, 0.6201192141, -0.0001566984, 0.0232576337, 0.3027152121, 0.1990169138, 0.3401297033, 1.0611085892, -1.4432269335, 0.0002742879, -0.9623283744, -0.0000467158, 0.2668235898, 0.0001666637, -0.4701585174, -0.3930392861, -0.0001712032, 0.0031524384, -0.5645146966, -0.0000395542, -0.1679467261, -0.9516329169, -1.4285814762, 0.0012707030, -0.0001190079, -1.3337777853, 0.3855557740, -0.0825807750, 0.6355409026, -0.0001757796, -0.0000638683, -0.5081344843, -0.6906270385, -0.7620041966, 0.0005414234, -0.2149830461, 0.0002048227, 0.4325724840, 0.0880200937, -0.3540111482, 0.7812969685, -0.7778121829, 1.7934458256};

#endif
