//Numpy array shape [16, 64]
//Min -1.885182738304
//Max 1.253525018692
//Number of zeros 0

#ifndef W2_H_
#define W2_H_

#ifdef __INTELFPGA_COMPILER__
hls_init_on_powerup
#endif
static const model_default_t w2[1024] = {0.0910316855, 0.1073458567, -0.1778125167, -0.3244934976, -0.0007132597, 0.1967080683, -0.2295134813, -0.0315193832, -0.3912751377, 0.1442351043, 0.1424778253, -0.0382137373, -0.0022798541, 0.1179459020, 0.0024897191, -0.2160911858, -0.0009899735, 0.0017118864, 0.0179667491, 0.0003156771, 0.0139515297, -0.2708022594, -0.0129557606, -0.4995183945, 0.0552214943, 0.1119885594, 0.0020242366, 0.0002155537, -0.0725213960, 0.0002713006, 0.0682789609, 0.0105721783, -0.4610789120, -0.3858263493, 0.1051601022, 0.1224871427, -0.0161883216, 0.0088030975, 0.1297878772, 0.0050311419, -0.1418298781, 0.1920107007, -0.3058842123, -0.0011770185, -0.2982568741, 0.1541565210, -0.7432094216, -0.0206663739, -0.0715197325, 0.0101297377, 0.0032081974, -0.0007550203, 0.0002703604, -0.0016680284, -0.0405964330, -0.5676746368, -0.0014563245, 0.0862259939, 0.0274269525, 0.0068396712, 0.1250244081, -0.0019357284, 0.0009270373, -0.5251052380, -0.5181425810, -0.3592659831, -0.3999943435, -0.0113638118, -0.0046085762, -0.0621381290, 0.2944302261, -0.1665891707, -0.1301892847, 0.1592258513, 0.2997361422, -0.0181240868, -0.0544543453, -0.2212336659, -0.0655063987, -0.3869129419, 0.3438673615, 0.2538158596, -0.0532618165, 0.0000164675, -0.0017431441, -0.0930598229, -0.0505941845, 0.0148314890, 0.1220555827, -0.1319925785, 0.2522240877, -0.1514082998, 0.2005848289, -0.2871965170, -1.1392744780, -0.0288670864, -0.0253778175, 0.0003084106, 0.2542546391, 0.7525159121, -0.0016846027, -0.0034408381, 0.0386254601, -0.0041906680, -0.0027401026, -0.0600618683, 0.0052125268, -0.0010579223, -0.0216596052, -0.0004067089, 0.6828627586, -0.1197962612, 0.0000810019, 0.0000158382, -0.0000856806, -0.0001287359, 0.0049240738, -0.0000149957, -0.0000140941, 0.0000097239, -0.0000118013, -0.0000547846, -0.0000337430, -0.0000109933, -0.0000659910, -0.0000243386, -0.0000926647, -0.0000946952, -0.0024779877, 0.6628823876, -0.0005799817, -0.0844012573, -0.0059160711, 0.0787298232, -0.0027468957, 0.0127950050, -0.0027478780, 0.0040949695, 0.1094390675, -0.3457161486, 0.2987025678, 0.0024504340, 0.5243512392, -0.0377416313, -0.0066924328, -0.0262012091, -0.3155195713, -0.6918813586, -0.4266184270, -0.0220992584, -0.0576942414, -0.0353192948, -0.2164431810, -0.1173714101, 0.1378787309, 0.2062976360, -0.2010421306, -0.2052547187, -0.1789848208, 0.2467568368, 0.0005700625, 0.0010696822, -0.0052505108, 0.6357643008, -0.0381715856, -0.0156397987, 0.0759309381, -0.0046311542, -0.0000429888, -0.0716330558, -0.0026533171, -0.2480300516, -0.0006431565, -0.0007163520, -0.1700421870, -0.0039057441, -0.2501911223, -0.1304621696, -0.8755987287, -1.0686222315, -0.2144743651, -0.1304689199, -0.1545728594, -0.0205858331, 0.0160694905, 0.3406257629, -0.3010782599, 0.0556585044, 0.1663148552, 0.0158053301, 0.8097697496, -0.1221348569, -0.0007633686, 0.2140621394, 0.0164015125, -0.0009397020, 0.0114198085, -0.1440515965, 0.0008812816, 0.0033714303, 0.0395879783, 0.0076735253, 0.0034683498, 0.1292505562, 0.0071217907, 0.0456211455, -0.8736712337, 0.0006094039, 0.0705088899, 0.0102216918, -0.1478143185, 0.0003598596, -0.1991339177, 0.0003184503, -0.0067887874, -0.0050769853, -0.0133690033, -0.0458985567, 0.0178828966, 0.0018982003, -0.0013816294, -0.1228883564, 0.0008511671, -0.0640785918, -0.0097521627, 0.0044478681, -0.0679599941, 0.2019381374, -0.0007418298, -0.0143445423, 0.0379412621, -0.0437651612, 0.0380043089, 0.2863017023, 0.0083822180, 0.0103986179, 0.0029020905, -0.0321824886, 0.7129017115, -0.1673973352, -0.0282182582, 0.0002197221, -0.1648920774, -0.0493554994, -0.0000484030, -0.0013390449, -0.0049334057, -0.0007649385, -0.0178110637, -0.0030353861, -0.0020471197, 0.0155047560, -0.0008546172, 0.0141438153, -0.7934978604, -0.0584906973, 0.0063822307, 0.0186374672, 0.3937040269, 0.0000921804, 0.5132617354, 0.0324890986, 0.0898289233, -0.3031689525, 0.0010718515, -0.0269710850, -0.2725390196, -0.1571234316, -0.0053743403, 0.0043980842, 0.0007601780, -0.0036629501, -0.0701851994, -0.0628473461, 0.0078727454, 0.0089804474, 0.0566536561, 0.0024255724, -0.0632988736, 0.1243523136, -0.0039274963, -0.1279498935, -0.2213645130, 0.0103432015, -0.0260560866, 0.0595868677, 0.8461194038, 0.3304124773, -0.0084668044, -0.0217942186, 0.2238426805, -0.3902395964, -0.0787060335, 0.0245796703, 0.1517563313, -0.1154969782, -0.0206077211, 0.1234167740, 0.2427060753, -0.1813623756, -0.3327938020, 0.1683508307, -1.8851827383, -0.0096381716, 0.0005317150, 0.0603889823, -0.0023261160, -0.0032729015, 0.2193728685, -0.0004399886, 0.0018762763, -0.0874612033, 0.0018692662, -0.0370405428, 0.0002120119, 0.0627180785, 0.0013694759, -0.0019153537, -0.0014164753, -0.0070499550, -0.0026617388, -0.0249860790, -0.0552072413, 0.5748457909, -0.0093103293, -0.0045238854, 0.0163336080, 0.0083200447, 0.0163386911, 0.0123314364, 0.0086831171, 0.0080783851, 0.0365680866, 0.0022335486, -0.3837016523, -0.7057196498, -0.0139887147, 0.1127387509, 0.0001868512, -0.0480139889, 0.0157647077, 0.0306361932, 0.0620686822, 0.0052407398, 0.0463041179, 0.0250178222, -0.2081587762, -0.5841338038, 0.0004543862, 0.1078348085, -0.0095020775, 0.0106430938, 0.1116971895, 0.4725723267, 0.1261651516, -0.1965326518, 0.0753042176, 0.0073803696, -0.1176240668, 0.0040917317, -0.0107503766, 0.3745552301, -0.2861842513, -0.2538204491, -0.3355031908, 0.1666569114, -0.0006723265, -0.0461064093, 0.1157796979, 0.2102498859, -0.4146428108, -0.1627640724, -0.3817089200, -0.0615016483, 0.2131696790, 0.0080468925, -0.1508708745, 0.2206075191, -0.1142199114, 0.0406055264, 0.0658922493, -0.0677939057, 1.0733474493, 0.0371743776, -0.0007242919, 0.1877906471, -0.0001977557, -0.0043301592, 0.0365781970, -0.0026637076, 0.0020843770, -0.0174046233, 0.0020800645, 0.0065292884, 0.0213711243, 0.0000849403, 0.0030994187, 0.0708814263, 0.7194017172, -0.1614791006, 0.0748585314, -0.0109130945, 0.3154790103, -0.5669242740, 0.4432547688, 0.0012250098, -0.0037226342, 0.0009764889, -0.1142930016, 0.2454278916, -0.0004627055, 0.0471711159, -0.1994567066, 0.0213045422, 0.5745021105, -0.1616716683, 0.0004635921, -0.0023085587, 0.2112529278, -0.0974275768, 0.0001397817, -0.0234787147, 0.0637949631, -0.0058928612, 0.0097955540, -0.3004628420, 0.0239836555, 0.2033332437, 0.0034721212, -0.1123076156, -1.2961732149, -0.0268071890, 0.0787388384, 0.0019308432, -0.0053778202, -0.0080445288, 0.2364815325, 0.0026305565, -0.0002650871, -0.2081398517, -0.0002755035, 0.0002685328, -0.0339257158, 0.4567753375, -0.0222440474, 0.0619848892, 0.1504165679, 0.0001145393, 0.1916406453, -0.2156555504, -0.2961701155, -0.1160723865, -0.0059848828, -0.0026016131, -0.0111110574, 0.0091159483, -0.0111198714, 0.0829737633, 0.1654100865, 0.1637672335, 0.0013950283, -0.0327333100, 0.0162631143, 0.5844876170, -0.0184154417, 0.0116653210, 0.3023197949, 0.1972511113, 0.3153879344, 0.0036463651, -0.0030867229, 0.1299321651, -0.0262384191, 0.3964977264, 0.0941690505, 0.0351442546, 0.0407108255, 0.0368666723, 0.0000309164, -0.4023775458, 0.0177659970, -0.0050799940, 0.0010363585, 0.0849339813, 0.0003681764, -0.1624364406, 0.1122792140, -0.3416097760, 0.0005274341, -0.0937254503, -0.1822301149, -0.0024968996, 0.0004524465, -0.1372646391, 0.3561777771, -0.0977141038, 0.2333175689, 0.1418867409, 0.5672990084, 0.0766701996, 0.4100312591, -0.2245627344, -0.1013275161, -0.0851445049, 0.0998281538, 0.1423602998, -0.0369989723, 0.0071792598, 0.0017448784, 0.0011264550, -0.8351056576, 0.0722784251, -0.0710819438, -0.1846580654, 0.0004150002, -0.0000756810, -0.0006419645, -0.0030320361, 0.2440132052, -0.0775972456, 0.2893267870, -0.0003579049, 0.0019127054, -0.0985474363, 0.0015962357, -0.0017574226, 0.0536418371, 0.0021421758, -0.2872779965, 0.0317990221, 0.3071486056, -0.5588588715, 0.3315688968, -0.4396868646, -0.0482164472, -0.1999929100, 0.1903557926, -0.0886893794, 0.0011875504, 0.0082715191, 0.0114318812, 0.0923131481, 0.4152851701, -0.2046613097, -0.1266234964, -0.0000594607, 0.3609418273, 0.4877791107, 0.0684290603, 0.0601148233, 0.0020171565, -0.0013264868, 0.0310713463, -0.2921243012, -0.2839175761, 0.1584266275, -0.1229132563, 0.0024966225, -0.2168351412, -0.0001438834, 0.3272937834, -0.4853408337, -0.0003706316, 0.2210415602, 0.0003910239, -0.0414427333, 0.0942292586, -0.0035232347, 0.0019170225, 0.0035691198, -0.0756563395, 0.0287174340, 0.0108074024, 0.0202271231, -0.1049027070, 0.2579090297, 0.0127800424, -0.0690272525, -0.1917154938, -0.0013065048, -0.0021914700, -0.0008190649, 0.0936141536, -0.0023675323, 0.2176962793, 0.0026551788, 0.0252244417, 0.0067136064, 0.0747779980, -0.0004904835, 0.5621696711, -0.1843174845, 0.0000587869, 0.0001140469, 0.0000102743, 0.0000533795, 0.0000545407, -0.0001127522, 0.0002338442, -0.0002961264, -0.0000531805, 0.0000755591, -0.0000933553, -0.0000933480, 0.0000058846, -0.0000576512, -0.0000265723, 0.0000489609, 0.1060873270, 0.0009675794, 0.0782354325, 0.0016559523, 0.0021553517, 0.0035647331, 0.2905856669, 0.0356757455, 0.0041379235, 0.0015430115, -0.0543813482, 0.0012100030, 0.0042262827, -0.0029479642, 0.0104230000, 0.0070937728, 0.1839754581, 0.0013970879, 0.0010668618, 0.0299200155, -0.0147127612, -0.0891742781, 0.1991751939, -0.1251710355, 0.1348872632, -0.3167074919, 0.0033443393, -0.0985448807, 0.2874102890, -0.0742327496, 0.3470527232, -0.0047005042, 0.4557624161, 0.3380515277, 0.0020909342, -0.3288094699, -0.0006677919, -0.0011039616, -0.0037834160, 0.1084636152, -0.1839113235, 0.0780151933, 0.0358308740, -0.0059999996, 0.0366472416, -0.0369526744, 0.0208549760, -0.0020596215, 0.0023182512, 0.0000140228, 0.0008045400, -0.1226775125, 0.0148418481, -0.1653001606, -0.1394447684, -0.0213677231, 0.2224294692, 0.3627738655, -0.0039596576, -0.0908376053, -0.3159448206, 0.1343910843, 1.2535250187, -0.0381016806, 0.0023419752, 0.0054812683, 0.0220679920, -0.1492071599, -0.0029238516, -0.0102250939, 0.0233993605, -0.0019255501, 0.0002607456, -0.1778669357, 0.0006158960, 0.0212715063, 0.0017889403, -0.0014859900, 0.0312418509, -0.1897765398, -0.0356232449, -0.0473702252, 0.4512446225, -0.0744320825, 0.1372022182, 0.0028537961, -0.1227548793, 0.0969650522, 0.1613206267, 0.0012592517, 0.0007978933, -0.1576750129, 0.0004406181, 0.1081236526, -0.8748891950, -0.0907226875, 0.0881489888, -0.0080723669, -0.1006939560, -0.6648644805, -0.1616558880, 0.0025261135, -0.0033626151, 0.0004443373, -0.0035280781, -0.0005020080, 0.0389140397, -0.0227039382, -0.1002814099, -0.0391472727, 0.7197895646, 0.0028473593, -0.0013733220, 0.0345139727, 0.5352015495, 0.1144258082, 0.3123733401, 0.0008953108, 0.1607512534, -0.2770739198, -0.0180350617, -0.1096172929, 0.0003961460, 0.0149846990, -0.1491781771, 0.0030477755, -0.4086674452, -0.1538807005, -0.0241954848, 0.0327282958, -0.2942328155, 0.0013317809, 0.0189436805, 0.0873979628, 0.0684093311, -0.1708846688, -0.0110729914, 0.2232516706, 0.0238657054, -0.1158755720, 0.2105002850, 0.0013931422, -0.0001714494, 0.4745654464, -0.2873554528, -0.0019605835, -0.1630469561, -0.5332791209, -0.1194915026, -0.0901228786, 0.0826701373, 0.0712782666, 0.0063672615, 0.0011898191, -0.1119464934, -0.1986863017, -0.0008961328, -0.0125816306, 0.1132169366, 0.2998217940, -0.0594400093, 0.0004876449, 0.0030445696, -0.0008975725, 0.2970657349, 0.0014519352, 0.0616352931, -0.1531534046, 0.0075054481, 0.0010118004, 0.0427251086, 0.0016820332, 0.0047892733, -0.0100008445, -0.0011303345, -0.5385009050, -0.2411252558, -0.2540895641, 0.0032164212, 0.0979361758, 0.0007758411, -0.0002010759, 0.0007132808, 0.1308645606, 0.0007374639, -0.2723458111, -0.0071958369, -0.3413622975, -0.0035678076, -0.0001065766, 0.0790853277, 0.2169520706, -0.0299162976, -0.1184180155, 0.0002592213, -0.1123153716, -0.1141343340, 0.0008497721, -0.0005206567, -0.0020481322, -0.0005393153, -0.1834538579, 0.1967725009, -0.0862056762, 0.0011932559, -0.0014512389, -0.1448361725, -0.0637698248, 0.3023603261, 0.0041952152, 0.0474659465, 0.0083302632, 0.0435405076, 0.1325258762, 0.0011693557, 0.0006701004, 0.0011669984, 0.0025360058, -0.0111470623, 0.0022882065, 0.0018891105, -0.0004626555, -0.4195541739, 0.3657185435, 0.1535585374, -0.0249734391, -0.5138254762, -0.3923735023, -0.5411718488, -0.0881986916, -0.1556144059, -0.0000172756, 0.2736659944, 0.2037838697, -0.1230820417, -0.1151955277, -0.0516874455, -0.0110582514, 0.6304984689, 0.0785971433, 0.0031997601, 0.0005024388, -0.0009433371, 0.0070143645, 0.0013380211, 0.1154823452, 0.0057989215, 0.0038476237, 0.0747123733, 0.0001445609, -0.0011939009, 0.0350498147, -0.3543438613, 0.0028118873, 0.3016889691, -0.1821701974, -0.4165122211, 0.1307950616, 0.0481679887, -0.0001715562, -0.0212827157, 0.0001028488, 0.0061687436, 0.0029657788, 0.0798711851, 0.0029150806, 0.2225948721, 0.0000819096, 0.2059608847, 0.0009391998, -0.0024289100, 0.3934487104, -0.0000762833, -0.0000327273, -0.0000640881, 0.0000959189, -0.0000680860, -0.0000000833, -0.0000114064, 0.0000475102, -0.0000893401, -0.0002583610, 0.0000163361, 0.0000616015, -0.0000398703, 0.0001636581, -0.0000613025, 0.0001097804, 0.0013666729, -0.0015403188, -0.3550282121, -0.0017004620, -0.1941733807, 0.3351384997, -0.0510206930, -0.0464942716, -0.0032721229, 0.0007731030, 0.1383187920, -0.4899931848, -0.0385821350, -0.1038357839, -0.0022514490, 0.3319047987, 0.0031830517, 0.1312244087, 0.2717376053, -0.1776836365, 0.3829777241, -0.0012686850, -0.0496540256, 0.0002061387, -0.1153121218, -0.0902367458, -0.1308284998, -0.1230328083, 0.3459797204, -0.0014043151, -0.9378243685, -0.1763000935, 0.0015471709, -0.0239751581, 0.0673015192, -0.0745426193, 0.0000708590, 0.0014006131, -0.1845835000, 0.2407451123, -0.2261543721, 0.0493868217, -0.0053956234, 0.0633861125, -0.1997388154, 0.2522093952, 0.6096609831, -0.0009511652, 0.2659265697, 0.5351253152, -0.0005116138, -0.0032214532, -0.0025968044, -0.0008342433, -0.0033528132, 0.0001732337, -0.0033410855, -0.0013868193, 0.1453821063, 0.0140162064, 0.0000391888, 0.0028361192, -0.1172553152, 0.0066935373, 0.0000338534, 0.0505831130, 0.0006574001, 0.0010467612, 0.1003642157, 0.0702604279, -0.1746249348, 0.0008769909, -0.0541514307, -0.0696666166, 0.2083235383, -0.0894017592, 0.0015967957, -0.0270916559, 0.0024717026, -0.0012254842, -0.1121429875, 0.3138593435, 0.0031653238, -0.2236419320, 0.3542157114, 0.0063425121, -0.0084874053, 0.0121823978, -0.0088756010, 0.0165546890, -0.0339813903, 0.0327818245, 0.0000133975, 0.0004073131, -0.0300903711, -0.2694522440, 0.1626923531, 0.0267272033, -0.0013757576, -0.0020883561, 0.3390709460, -0.0003880062, 0.0024821796, 0.0052189282, -0.0680030137, -0.3204615712, -0.0018597799, 0.0562058799, -0.1600122601, 0.0253713522, -0.0021251948, 0.0010754585, -0.0596543476, -0.0172072817, 0.5427926183, 1.0130180120, 0.1174556538, -0.0017808957, 0.2620317042, -0.0436665080, -0.2030465305, 0.0922387093, -0.2672809362, 0.1193958372, -0.0330334008, -0.0183927864, 0.4971769750, 0.0013910386};

#endif
