//Numpy array shape [64, 32]
//Min -1.165224671364
//Max 0.636103391647
//Number of zeros 0

#ifndef W5_H_
#define W5_H_

#ifdef __INTELFPGA_COMPILER__
hls_init_on_powerup
#endif
static const model_default_t w5[2048] = {0.0051304619, -0.0012069766, 0.0191260129, 0.0109453369, 0.3536398411, -0.3269396424, -0.5085496306, 0.0001491274, -0.3317379057, 0.0015940373, -0.0001625242, 0.3988974988, -0.0070895632, 0.0011494816, 0.0000229526, -0.1737153679, 0.0083021848, -0.4968285263, -0.2957125902, -0.0024175851, -0.0051472569, -0.0005326317, 0.1148872599, -0.0335910730, -0.0514163747, 0.1651399285, 0.0020393641, -0.0081393961, -0.1765870899, 0.0006385483, 0.0074747237, -0.0000638786, 0.0411875360, 0.2289395183, -0.0014828226, -0.1492642313, 0.0043895035, -0.0000052526, 0.2283167690, 0.0272190738, -0.0124414973, -0.1299453825, 0.0966803357, 0.0440123342, 0.1679621935, 0.0183723718, 0.0737090483, 0.1299380213, 0.0013473785, -0.0883633047, 0.1479244083, -0.0065233917, 0.0306101032, -0.0009032568, -0.0016243432, -0.0001050143, -0.0029970014, 0.0838155746, -0.0036149570, -0.2889578044, -0.0023168204, -0.0003269617, 0.1411861181, -0.5346917510, -0.0002229598, -0.0001893310, 0.0012868848, -0.0005601600, 0.0008489019, 0.0006295596, -0.0004514805, -0.0000615561, -0.0000222769, 0.0005327520, 0.0005732914, 0.0010595033, 0.0012209361, -0.0000122324, 0.0002384981, 0.0009571739, 0.0001166378, 0.0000718884, 0.0019754914, 0.0000123769, -0.0003902932, 0.0010744447, 0.0006079607, 0.0004040879, 0.0002471078, 0.0001937314, 0.0010647897, -0.0000877804, 0.0000886199, -0.0001300658, 0.0001192636, 0.0006224721, 0.0007626185, 0.0004490114, -0.0001040561, 0.0009207781, 0.0007883105, 0.0000861385, 0.0010831963, 0.0009069198, -0.0003058794, 0.0715018213, 0.0003305642, 0.0017123363, 0.0009687073, 0.0002624552, 0.0000204359, 0.0011177970, 0.0004852463, 0.0001385445, -0.0002782227, -0.0002146161, 0.0005916166, 0.0000949601, -0.0002050279, -0.0001779381, -0.0002086694, 0.0011787537, 0.0001095966, 0.0001442936, -0.0001443433, 0.0004833346, 0.0003403032, -0.0002618679, -0.2389252931, 0.1060691997, 0.0861173868, -0.0025559040, -0.0284591187, -0.2690759897, -0.0715115219, -0.0000075877, 0.0017012560, -0.1069762111, -0.1974667758, -0.8259007335, 0.0000239115, 0.0032484769, -0.0006953328, -0.0010089891, 0.0018879429, -0.0004383454, -0.3929277062, 0.0222245269, 0.0028041510, -0.0003040269, 0.0567196198, -0.3105272651, 0.0012342255, 0.0040996927, -0.0867579728, 0.0615103617, -0.0100362403, 0.0089779319, -0.0003971139, 0.2455731779, -0.0095611839, 0.1857036650, 0.2187480181, 0.0386139788, -0.0673597977, 0.0004067637, -0.0030401121, -0.0264520645, -0.0825052261, -0.0000116075, 0.0004691046, 0.0022945411, -0.0002628892, 0.1266277432, 0.0017208097, -0.0304802880, -0.0013473155, -0.0048511024, -0.0228604190, 0.0002141668, -0.0796517581, 0.0014951325, 0.0098229898, -0.0000090266, -0.0012214396, 0.0015810886, 0.0274617001, -0.0025376023, -0.0003895024, 0.0149163557, 0.1270448565, 0.0939956605, 0.0023462516, -0.0009336887, -0.2488709986, 0.0036982268, -0.0003260284, -0.0214344468, 0.0027512941, -0.0000544918, -0.0250102319, 0.0903385803, -0.1648391485, 0.5293433666, -0.0449506231, -0.0025000379, -0.0012646513, 0.0895503983, -0.1316663325, 0.0690352172, -0.0177856553, -0.0002453661, -0.0130891334, -0.1606733203, -0.0487430803, 0.3610635102, 0.0752821267, 0.2147480845, -0.1782882959, -0.0095252059, -0.0248379111, -0.0811932907, -0.0094940076, -0.2880232036, 0.0086512435, 0.1870584190, -0.2936739326, -0.1268550158, 0.4128340185, -0.0001271716, 0.0142087070, 0.1069172695, -0.0025217365, 0.1191110089, 0.1898309439, -0.3164348602, 0.2522301078, -0.3734222054, -0.0010735126, 0.1703447253, 0.0003715414, -0.0053466326, -0.0034011761, -0.0031427837, 0.0559620857, -0.1581726819, -0.0334437527, 0.0000097145, -0.0037319534, -0.3944980800, 0.1228345111, -0.1283073276, -0.0006465514, -0.0823952332, -0.0507506989, 0.0006307055, 0.0070352508, 0.0002948699, 0.2389093041, 0.0152789466, 0.3389493823, 0.0003756217, 0.0021279592, 0.0000186995, -0.0002955805, -0.0317941681, -0.0010259126, 0.2286255658, -0.0014132555, 0.0006214052, 0.2275546491, 0.0002362537, 0.0023183562, -0.0003048829, -0.0234728809, -0.0001697103, 0.0017455952, -0.0004545581, 0.0003333146, -0.0019555001, 0.0945451260, 0.1466628760, 0.1335292608, 0.0002656266, -0.2715947032, 0.0105068982, 0.0005665347, -0.1633911282, 0.0026107626, 0.1017611176, 0.0022120620, -0.1046275944, 0.0641920269, 0.0000802041, 0.0009212245, 0.0024928432, -0.0273340624, 0.0395031832, 0.0903132111, 0.0005868536, -0.0010317680, 0.0556518547, -0.3199733794, -0.0012485387, 0.2139936537, -0.0045421883, 0.0597691946, -0.0613893643, -0.0000042379, -0.0012422431, -0.0274176933, -0.0000577098, -0.0012410794, 0.0635550618, 0.0030354813, -0.0216816440, 0.0009067898, 0.0002168426, 0.0267175939, 0.0126222121, 0.0029829398, 0.0004600628, 0.0020229020, 0.0002916429, 0.0033405817, -0.0034329954, 0.0822900385, -0.0000323031, 0.0321135521, 0.1684890389, 0.0056360727, 0.4738839865, -0.0015114053, -0.0005181744, 0.2010907531, 0.0384527519, -0.1141486987, 0.0011512554, -0.0013283856, 0.0009350330, 0.0008467746, -0.0028865335, 0.0010593873, 0.0051866686, 0.0007817294, -0.0380749963, 0.1041959673, -0.0028847300, -0.0010516697, -0.0350426883, 0.0041119810, -0.0023005353, 0.0003074630, -0.2192710042, 0.0003820528, -0.0044084159, -0.0003516815, 0.0000488679, -0.0027898976, 0.0208269563, -0.0005178119, 0.0983566046, 0.0000639506, -0.0013573830, 0.0014265601, -0.0780033618, 0.0015578344, 0.1301971078, -0.0000525336, 0.0010277678, -0.0020020714, -0.0014331888, 0.1049777791, 0.0010593596, 0.0016942013, 0.0000580935, -0.0006360601, -0.0001675469, 0.1009640768, 0.0002799617, 0.0010712948, -0.0669554546, -0.0000935284, 0.0011066691, -0.0016843898, -0.0021870998, -0.0470769368, 0.0537171736, -0.0033526313, -0.0055735270, 0.2169010937, 0.0000675557, -0.0012345223, -0.0940439478, 0.0012903288, -0.0003914556, 0.0010823846, 0.0007829373, -0.3730835617, -0.0000185665, 0.1030595824, 0.0013257260, 0.0004994195, 0.0000179239, 0.0004009880, 0.1222591996, -0.0017050389, 0.0348252729, 0.1771880090, 0.0013874609, -0.8974735737, 0.0015330281, 0.0001907406, -0.0065116286, 0.0113093536, -0.0002227971, 0.0600447878, 0.0551448502, 0.0029731919, -0.0003277157, -0.0029031159, -0.0001686295, -0.0007004919, -0.0023694232, -0.0050540939, 0.1726168543, 0.0026056548, -0.2023873776, 0.0385805368, 0.0000652867, 0.0019385592, 0.0015904529, -0.0013515842, 0.0001031268, 0.0013285254, -0.0002751163, -0.0009260279, -0.0005345144, -0.0006458986, 0.0000284514, -0.0005861414, -0.4046253562, 0.1473227143, 0.0002736428, -0.0001390784, -0.0017037700, -0.0009179180, 0.2174319029, 0.0000444244, -0.0000092138, -0.0001309075, 0.0001038747, -0.0001245899, 0.0000821726, 0.0000459310, -0.0000350587, -0.0001256013, 0.0000939883, 0.0000839900, -0.0001319076, -0.0001038927, -0.0002516370, -0.0002366434, 0.0000662340, -0.0000198564, 0.0000136366, -0.0003497499, -0.0000583112, 0.0002462862, 0.0000020823, 0.0000367321, -0.0000492566, -0.0001375048, -0.0000277081, -0.0000991410, -0.0002442476, 0.0001110854, -0.0000806735, 0.0001433585, -0.0001547936, -0.0000586974, 0.0001777748, 0.0000585947, 0.0001016042, 0.0000839835, -0.0001114613, 0.0000541262, 0.0001727572, 0.0000736815, -0.0000190337, 0.0000468537, 0.0000328387, -0.0000332984, 0.0000032633, -0.0001098907, 0.0001357070, -0.0001177239, -0.0001426770, 0.0000097326, -0.0000554134, 0.0000521894, 0.0000246570, 0.0000865261, 0.0000289881, -0.0000313715, 0.0000224686, 0.0000289523, -0.0000986707, -0.0000406333, -0.0000974450, 0.0000834492, 0.0000119621, 0.1005169451, 0.0015932405, -0.3503671288, -0.0026728504, -0.2038969845, 0.1675576717, 0.0389222354, 0.0046599554, 0.1566016972, -0.0488286912, 0.0997010767, -0.1615139544, 0.1370951980, 0.0011458443, -0.3480032384, 0.0021756464, 0.0987417400, 0.0024671108, -0.0032825442, -0.0008020151, -0.1589197814, 0.0006328088, 0.0540910326, 0.2456397265, -0.0389517285, -0.2754595578, -0.0008495054, -0.2028402239, 0.0029181966, -0.0436101519, 0.0595044047, 0.3792828918, -0.0022132203, -0.0007173753, 0.1331468970, 0.0021444394, -0.0085340133, -0.0001121121, -0.0066684014, 0.1697520912, 0.1259246916, -0.1480146050, 0.0292129833, -0.1355022192, 0.0158553272, -0.0008058934, 0.2404125184, -0.0190291461, -0.0032714698, 0.1836169958, -0.1392789036, 0.0043872530, -0.0723282546, 0.0016642383, 0.2606070340, 0.0000295705, 0.2654060721, 0.0807285681, -0.0920890346, 0.1340717077, 0.1681811810, 0.0689843073, 0.0001353177, 0.0157610774, -0.0010843009, -0.0362039097, -0.0821429640, -0.0049784807, -0.0808663890, 0.0217973329, -0.0750355646, 0.0000311789, 0.3489933610, 0.1092780530, 0.0010298095, 0.4223435223, 0.0004206589, -0.0015351037, -0.0028567265, -0.0013846270, -0.0001733055, -0.0048859487, -0.0390612297, -0.0539994240, -0.4951296747, 0.2123793513, 0.3759795725, -0.0002273619, -0.0301139019, 0.0019772497, -0.1502936780, -0.0012009850, 0.1325877160, -0.1842327118, -0.0009099537, -0.0003346643, 0.0451053716, -0.1308855116, 0.0007574395, -0.0953577161, -0.0000536734, 0.0000288447, 0.0020589936, -0.0137354126, 0.2023166865, -0.0212946255, -0.0010439176, -0.1138724536, 0.0223147571, -0.0009853076, 0.0757547319, 0.0873154998, -0.1898211837, 0.0127164824, 0.0893008932, -0.0463895276, 0.2539199293, 0.0020800582, 0.2550481856, 0.0000989054, 0.2050528824, -0.0392891392, 0.0007834514, 0.0018938958, -0.0009530435, -0.0045728944, 0.0016633215, -0.0234431010, -0.0037026168, 0.1371593475, -0.1209720150, -0.0020411278, -0.0027140169, -0.4197547734, -0.0021011203, -0.0002436227, 0.0183390640, -0.0811029896, -0.0008470439, -0.0601567589, -0.1884659231, -0.0006257640, 0.0043501058, -0.5927387476, 0.0414121114, 0.0024395902, -1.1425672770, 0.0014173659, 0.0065775416, 0.0016594351, 0.0381872281, 0.3734012544, 0.1381052285, 0.2533597946, -0.4817201197, -0.0043320074, -0.0009430021, -0.1384087056, 0.1585701704, 0.0193271283, 0.0390234068, 0.1738660187, -0.1663458049, 0.0395842604, 0.0476824306, 0.0000970139, 0.0898071080, 0.0011326657, 0.0032892479, 0.4360254705, 0.1371436417, -0.2566465437, 0.2693486810, -0.0267442893, 0.0021382098, 0.0671781525, 0.0012145364, -0.0173446126, -0.0994627029, -0.0005051281, 0.0004123368, 0.0001766192, 0.0257484447, -0.0001534631, -0.0899234712, -0.1226481050, 0.2427171618, 0.0001334348, 0.0717000812, 0.0030093547, -0.0184345152, 0.2122846097, -0.0459084138, 0.2041363120, 0.1268488318, -0.0009713425, -0.0003802863, 0.0766595751, 0.0010817441, -0.0000471353, -0.1751261353, 0.0013327524, -0.0093649430, -0.4459467828, 0.0695022196, 0.0016357129, -0.0040234951, 0.0010101835, 0.0391372070, 0.0006691354, 0.0454023294, 0.0031943133, 0.0956797302, -0.0060826307, -0.2051689178, -0.0005573404, -0.0016484946, -0.0829911008, 0.1560280770, 0.0041722064, -0.0205816347, 0.0033532907, 0.0633401796, 0.2764315605, -0.0524040982, 0.4752452374, 0.0245334245, 0.1484449208, -0.0169478767, -0.0001814502, -0.0000013656, -0.0022174984, -0.0004691192, -0.1439105272, -0.0002852303, 0.0003564571, -0.1899057180, 0.1027507931, -0.2130630463, -0.0635393932, 0.0500170477, -0.0000971146, 0.0007008246, 0.1468331963, -0.0916217640, -0.0068656402, -0.0379020870, 0.0000600577, -0.0440490544, 0.2136481702, -0.0366676077, 0.0046453807, 0.0007080741, 0.0023245541, -0.0027760530, 0.0023689140, 0.0000057511, 0.0001414824, 0.0000206597, -0.0000650532, -0.0000162301, -0.0000071654, 0.0000079151, 0.0000707639, -0.0000683520, 0.0000146139, 0.0001239423, 0.0000195281, -0.0000051244, -0.0000127538, -0.0002049524, -0.0000159558, 0.0000433218, 0.0000754257, -0.0000005757, 0.0000839010, 0.0001006973, 0.0000576953, 0.0000517616, 0.0001014936, 0.0000520215, 0.0000426508, 0.0000035347, 0.0000513398, -0.0000628888, 0.0000962297, -0.0000683321, 0.0000468291, -0.0000311896, 0.0000020598, -0.0000870857, -0.0000295037, 0.0001408305, -0.0000384133, 0.0000222033, -0.0000887721, 0.0000168428, 0.0000418090, -0.0000060975, -0.0000089302, -0.0000164973, 0.0000591968, 0.0000622951, -0.0000278651, 0.0000441142, -0.0000252402, 0.0000031284, 0.0000100058, -0.0000060285, -0.0001324920, -0.0000046587, -0.0001659761, -0.0000549210, 0.0000066245, 0.0001460683, -0.0000169418, 0.0000854962, -0.0000538459, 0.0000217121, -0.0001027057, 0.0765961930, -0.0014257743, 0.1785754561, 0.0011257859, 0.2906055748, -0.0016934737, 0.1983912438, -0.0001316594, 0.0009816744, 0.0741614848, 0.0020869782, 0.1479069442, -0.0005487105, -0.0007788090, 0.0006999124, -0.0005719566, 0.0018393368, -0.0009490500, 0.0116312746, -0.0004878406, -0.1315728724, 0.0012975794, 0.0044142744, 0.0005604996, 0.0014819957, 0.0008385972, -0.0006758414, -0.0019153658, -0.0019037039, 0.0018931899, 0.0019909116, -0.0006569803, 0.2139542252, -0.0438361652, 0.0027992998, -0.3322519362, 0.0022352096, 0.0001951635, 0.0004023958, 0.0045181862, -0.0010835816, 0.0010185111, 0.0000658073, 0.0001524721, -0.0006750808, 0.0006242461, -0.0000026508, 0.2455509007, 0.0012834375, -0.0016808015, -0.0008862460, -0.2261029780, -0.0017477296, 0.0474980995, 0.2962419093, 0.0001643014, 0.0001462570, 0.0005943896, -0.0006635351, -0.0025021953, -0.0011021631, 0.0008607289, 0.0007647268, 0.0038180619, 0.0000758668, -0.0000837827, -0.0000713181, -0.0000990924, 0.0000309972, 0.0000847069, -0.0000121686, 0.0000118424, -0.0000454065, -0.0000819277, -0.0000221938, 0.0000176361, -0.0000515677, 0.0001200316, 0.0000711328, -0.0000562397, -0.0000473225, 0.0000383356, -0.0000832293, -0.0000015820, 0.0000068229, -0.0002641065, 0.0001000961, 0.0001066122, 0.0000300221, -0.0000108700, -0.0000068336, -0.0002318672, -0.0000310593, 0.0000564668, -0.0000590118, -0.0000054171, -0.0000304269, -0.0000700074, 0.0000464855, -0.0000327748, 0.0000135679, 0.0000972141, 0.0000534551, 0.0000012288, 0.0001012641, 0.0000230914, -0.0000206481, 0.0000910714, 0.0000392774, 0.0000069966, 0.0000063036, -0.0000638343, 0.0001325108, 0.0001734362, -0.0000380361, 0.0000689362, 0.0000532139, 0.0001125553, 0.0000116618, 0.0000217868, 0.0001516707, 0.0000529572, -0.0001059275, -0.0000681136, -0.0000053898, 0.0000210385, -0.0000708718, -0.0000079170, -0.0018186760, 0.1159199774, -0.0244028140, 0.1994681656, 0.0407545865, 0.0026603893, 0.1281894892, -0.0000395291, 0.0119404951, -0.0013448178, -0.0006307133, 0.0228517782, 0.0005429369, -0.0006701708, -0.0015503578, 0.0001173608, 0.0029729602, 0.0015769610, -0.2642662227, 0.0018209154, -0.0015811991, 0.0036911517, -0.0011654516, 0.0969560891, 0.0021355883, 0.0373317637, -0.1499671489, -0.0034789396, 0.0026370650, 0.0173057802, 0.0747380927, 0.0017836432, 0.0386107303, 0.1011954695, -0.0006670693, 0.0035380407, 0.0446557701, -0.0000230115, 0.0071542631, 0.0228983257, -0.0022350729, 0.2283532470, 0.0010823824, 0.0038991426, 0.0003319882, 0.0024153339, 0.0002203071, 0.0040810686, 0.1142780855, 0.0016001228, -0.0003743661, 0.0005013127, 0.0023096437, -0.0015790262, 0.0000324852, 0.0000595508, 0.0017590683, 0.0034815171, -0.0034586797, 0.0005632552, -0.0004955183, 0.0046339510, -0.0009704286, 0.3320350349, -0.0591373667, -0.0015507349, 0.0003090324, -0.0041121235, -0.0008062485, 0.0922899693, -0.0116857011, 0.0001018671, 0.0026537066, -0.2039102763, -0.3611010611, -0.0819956809, 0.0006092180, -0.0006381224, 0.0001433287, 0.0012031109, 0.0018386134, 0.0524640493, 0.0021143754, 0.0262235347, -0.0024993091, 0.0057088579, 0.4460996389, -0.0017010388, 0.0433083028, 0.0019739829, -0.0004238347, 0.1898539960, -0.0056189140, 0.0020140051, -0.0866034180, 0.0016037751, 0.0003058760, 0.1976577789, -0.0047881925, -0.0010480455, -0.0025111081, 0.0001467600, 0.0026466344, -0.6601263881, 0.0002370288, 0.0781407878, -0.0009543296, -0.0002693876, 0.0002524134, 0.0008973299, -0.0032370987, 0.0023207562, -0.0051259464, 0.0023293465, -0.0005034274, -0.0006317775, -0.0011647546, 0.0010682407, -0.0252466053, 0.0002439913, 0.0024659033, -0.0010019871, 0.0026576775, 0.0007556842, 0.0006120994, 0.0066228504, 0.0012340390, 0.0034294645, 0.0068105590, 0.0004800736, -0.0023616157, 0.1294835657, -0.0005627684, 0.0058679897, -0.0027937186, -0.0000869185, 0.1412511468, -0.0711614117, -0.0931511447, -0.0050802664, -0.0003880634, 0.0037357353, -0.0021741639, -0.0779574886, 0.0023468847, -0.0014024829, -0.6869612336, -0.0001636972, 0.0001500775, 0.0046097208, 0.1451475918, -0.0001712274, 0.1455157846, 0.4399745464, -0.0170752127, 0.0121624405, -0.0049765441, -0.0012412878, -0.0003375369, -0.0014561174, 0.0051115090, 0.1880641878, -0.0006653080, 0.1128074229, 0.2190637141, 0.0001358762, 0.0039432342, 0.0012024086, 0.0028735902, 0.1062434614, 0.0955689326, -0.0681412444, 0.0021854842, -0.0004051252, -0.0048115393, -0.1769960970, 0.2097421587, 0.0011022291, 0.0027560582, 0.0011698130, 0.0015179433, 0.0008144551, 0.0029560274, -0.0001839149, 0.0003336678, -0.0008568884, 0.1493553221, 0.0022621306, -0.0002389925, 0.0113391802, 0.0020675368, -0.2354232371, -0.0019400276, -0.1312822104, 0.1553734839, -0.0364931896, -0.0037952345, 0.1646556407, -0.1927476823, 0.0002083858, -0.0415612645, 0.0361577719, -0.0006460271, -0.0098583633, 0.1361324936, -0.0009271723, -0.0001333497, 0.0017039413, -0.0390800200, 0.0030329723, 0.2992384136, -0.0001787256, -0.0001525547, 0.0000467891, 0.0002715330, -0.0018981338, -0.2252224535, -0.0011615035, 0.4367660582, -0.0017499729, -0.0008378004, -0.0004560793, -0.0413489789, 0.0121398494, -0.0059198267, -0.0024766698, 0.0011474034, -0.0341853984, -0.0040614917, 0.0001834195, -0.0021294386, -0.0396713465, -0.0013284369, -0.7674728036, -0.0006660890, 0.2992731333, -0.0002286236, -0.0078862738, -0.0017223021, 0.0033463375, -0.0040791905, 0.0032306935, 0.0237093121, 0.0015814445, -0.0013445886, -0.0011682047, -0.0054662535, 0.0000135394, 0.0236309506, 0.2717701793, -0.0111136874, -0.0022535331, 0.0000997269, -0.0013940545, 0.0007873966, -0.0992187634, 0.0151263950, 0.0021718086, -0.3374494910, 0.0062414021, -0.1259455234, 0.0003637425, -0.1852626503, 0.0000011339, 0.0269131251, 0.0018607517, -0.0046496852, -0.0006603780, 0.0086435080, 0.0056419945, -1.1652246714, -0.1270230412, 0.0805618614, -0.0288086068, -0.0144165084, 0.2313466817, -0.0016443684, -0.3832897842, 0.1081627756, 0.0189078525, 0.0015095354, 0.0134052560, -0.0014628806, -0.1221646070, -0.0283223744, 0.1858312786, -0.0002514136, 0.3249028921, -0.0380019657, 0.3450241983, 0.0256765969, 0.2542271614, 0.0562577173, 0.0002073539, 0.2366591394, 0.0070609064, 0.1661947072, -0.2357497215, 0.0401865393, -0.0380005576, -0.0004503650, 0.2230017334, -0.0054934458, -0.1420149207, 0.2107891142, -0.1317963451, -0.0010639909, 0.0827849656, 0.0008892152, -0.1509076357, 0.0724596530, -0.0000490533, -0.0260840561, 0.2426042408, -0.0795010477, 0.0009360937, 0.2587122321, 0.1851982325, -0.0013895185, -0.0875830874, 0.0015908772, 0.0016258773, -0.4955551028, -0.0002265625, -0.0583019666, 0.1204703674, 0.0068665696, -0.0000195487, -0.0015534476, 0.0027320085, 0.0043686945, 0.0068761222, 0.0473390333, 0.0015580729, 0.0021940987, 0.0030777149, -0.1147452667, 0.0034218200, 0.0015210815, -0.0004633992, -0.0025330915, -0.0019157291, -0.0041365731, 0.1282383502, -0.0013512438, -0.2766950727, 0.0022042582, -0.0036063241, 0.0033727032, -0.0185701586, 0.1415854990, 0.0012871387, -0.0017219249, 0.1375043392, 0.0024889342, 0.0431584679, 0.0007119189, 0.0000061125, 0.0644969866, 0.0048204623, 0.1677350700, 0.0000377268, 0.2266758531, 0.0004063063, 0.0042560967, -0.0008392354, -0.0165850148, 0.0015875089, 0.0007312644, 0.0018564446, -0.0199317876, 0.0046578767, 0.0034443068, -0.0001772076, -0.0329214819, 0.0000978551, -0.0056153070, 0.0021320907, -0.0025159027, 0.0925448984, 0.0004043804, 0.0082317013, -0.0032959173, 0.0132497223, 0.0011848594, -0.0001485147, -0.0015485607, 0.0014248911, 0.1334051639, -0.0009004304, -0.0007744496, -0.0001375968, -0.2608871460, -0.0005527192, -0.0016640075, -0.0010251934, -0.0523293465, -0.0002125101, -0.0003859674, 0.0378545225, 0.0019506916, -0.0010511491, -0.0017764443, 0.0000028679, 0.4334238768, 0.0002494462, -0.0031414148, -0.0003060195, 0.0005950977, -0.0005255957, 0.1168076023, -0.0001573202, -0.2887766063, -0.0027425084, 0.0011585648, -0.0027556007, -0.0004803672, 0.1916449070, 0.0013584583, -0.0021505731, 0.0025713919, -0.0000529441, -0.0010738618, 0.0084547652, -0.0083420016, -0.0003818466, 0.0000433487, -0.0024721492, -0.0009061894, 0.0020468181, -0.1003920734, -0.0038768747, 0.0018503538, -0.0014529502, 0.1283869743, -0.0012911030, 0.0483138263, -0.0010588408, -0.0618566312, 0.0000271316, -0.0014726601, -0.0014050228, -0.0270068515, -0.0029318384, -0.0003171180, -0.0007727365, -0.0010171602, -0.0076639322, 0.0626745522, -0.0635673776, -0.0013827116, 0.0003605981, -0.0007324669, 0.1223208606, -0.2957106829, 0.0002125517, -0.0038949649, 0.0304989032, -0.0000938621, 0.3074124455, -0.0014081568, -0.0014651115, 0.0001852468, -0.0004963324, -0.0311422944, 0.0072258059, 0.0163155310, 0.0012375200, -0.0023833513, 0.0005088727, 0.0024039513, 0.0034973568, 0.0011921166, 0.0060415985, 0.0309102405, 0.0046924101, 0.0010700045, 0.0014959220, -0.0037685779, 0.0018300497, 0.0023900487, 0.0021796275, -0.0797016621, -0.0032942186, 0.0009115778, -0.0002370561, 0.0006900288, -0.0031521132, 0.1966004521, 0.0022758360, 0.0013484202, 0.0010508675, 0.1501750946, -0.0537416190, -0.0005905442, 0.2311631739, -0.0014750808, 0.0069219517, 0.0010586447, 0.0036902034, 0.0001169805, -0.0007784330, -0.0377537683, 0.0000770484, 0.0043696868, -0.0005333504, 0.0081700068, 0.0055172509, 0.0044023315, 0.0022591532, 0.0010940850, -0.9827258587, 0.1524249166, 0.2194608003, -0.3415678442, 0.4851236045, 0.0012939881, 0.0038104064, -0.2458012104, -0.0002515455, 0.0162766278, 0.1261703223, 0.0002847801, -0.0045040809, 0.0027750921, 0.1676048636, -0.0000582007, -0.3492827713, 0.0024941664, -0.4589436650, -0.6591032743, 0.0015760431, -0.0006841186, -0.0322317705, -0.0019167918, -0.0006463533, 0.0025361949, 0.0005098525, 0.0028341052, 0.0089308955, 0.0027330848, 0.0077623739, 0.1686536372, 0.0981062502, -0.0322353356, 0.2047467530, 0.0034132877, 0.0687231496, 0.0031571325, 0.0000664147, 0.0016740116, 0.0025939145, 0.0034301016, -0.1557296365, 0.0021500685, 0.0016130202, 0.0863877311, 0.2003570646, 0.1032958254, -0.0596133843, 0.0349624604, 0.0030609688, 0.0010065373, 0.0008082115, -0.0000368038, 0.0017812925, 0.0543357804, 0.0001764959, -0.0007929424, 0.0036322323, -0.1635264605, 0.0048739216, 0.0334786661, 0.0030815478, 0.0881208330, -0.5578277707, 0.0004441105, -0.0020539069, -0.0011156956, -0.0027491713, 0.0003649918, 0.0011905268, 0.0006751514, 0.0000781745, 0.0001410756, -0.0015872931, -0.0029513701, -0.0257463772, -0.0025321105, 0.0000845570, 0.0004128974, -0.0000356409, 0.1263833493, 0.0006125191, -0.0062601212, 0.0358056054, 0.0000502804, 0.0015753245, 0.0007878504, -0.0005832129, 0.0008603218, 0.1406661719, -0.0026407018, 0.0772770122, -0.0011950755, 0.0028056013, -0.2978103459, -0.0001698081, 0.0470720679, 0.0703837425, -0.0007455819, -0.0015278881, 0.0000973949, 0.0000825767, 0.0009110183, -0.0031352711, 0.0004608357, 0.1095601320, -0.0005153911, -0.0009152676, -0.0012572045, -0.0013058899, -0.0011344763, -0.0331197754, -0.0022354010, -0.0817848891, 0.0003238520, 0.0005879382, -0.0003545466, -0.0009985273, -0.0007151671, -0.0000810136, -0.0146948006, -0.0011017697, 0.2208208740, -0.0001189862, -0.0003021746, 0.0013082401, -0.0039324840, 0.0181453619, -0.0516368225, 0.0016302328, 0.0010457328, -0.0696854740, -0.0051718568, 0.0769699290, 0.0040062973, 0.0000513881, 0.0038778277, -0.0494653545, -0.0027125883, -0.0025711320, 0.0106752645, -0.0024168214, -0.0018186795, -0.0023172207, 0.0159452464, 0.0065096286, -0.0356075056, 0.0022732755, -0.1155954376, 0.3156233132, 0.3054811954, -0.0017196614, -0.1529887021, 0.0033900517, -0.0029244858, -0.0011939250, 0.3619609475, -0.1917908639, 0.0037549783, 0.0029132073, 0.0011755634, -0.4181305170, 0.0060125738, 0.0035464333, -0.1763051301, 0.0000858850, 0.0034273618, -0.0033320873, -0.0004458178, 0.0038794382, -0.0395712666, -0.0046540052, 0.0021312833, 0.0040576714, 0.2302977890, 0.2596773803, -0.0032025082, 0.2225469798, -0.0019423825, 0.0033582116, 0.1904964596, 0.0008266364, 0.0036883024, 0.0000568337, 0.2235358953, -0.0013977777, 0.0027732200, 0.0953629315, 0.0024053466, -0.0431649834, 0.0026780423, 0.0064094965, -0.0052302009, -0.0039851503, -0.3261843026, 0.0120807923, -0.0185831264, 0.0893314928, -0.1194584221, -0.0014646442, 0.0861562565, 0.0499360152, -0.0001960578, 0.4381191134, 0.0011592644, -0.0001765344, 0.0008090591, 0.0012786865, -0.3133467138, 0.1138535663, -0.1064087525, -0.1002433598, -0.0043534855, -0.0030409580, 0.1618738472, 0.3265793324, -0.1155965999, -0.0129517280, -0.2571171224, 0.0005262099, -0.0036260439, -0.0346035697, -0.0078894384, -0.0835524723, -0.0059430571, 0.2328337878, -0.3641646802, 0.0710506290, -0.0074098785, 0.0000885170, -0.0024008940, -0.0495154485, 0.0581951924, -0.0092548793, 0.0206932798, -0.2117607892, 0.3229116797, -0.1582988650, -0.0419583544, 0.0949587822, 0.0201707426, 0.0644754916, 0.0030283430, 0.0070652976, 0.1953062266, -0.0160968434, -0.0826833174, 0.0000229881, 0.0398048125, 0.0003182350, -0.0059037711, 0.1478857696, -0.0030029807, 0.0625707731, -0.0082128765, -0.0541707203, 0.1739488989, 0.0000296478, -0.0049862666, 0.0017635212, -0.0012213006, 0.0301141944, 0.1089353189, -0.0000537803, -0.0029987737, -0.0003408183, 0.1445025355, 0.0023387547, 0.0610492565, -0.0004119225, 0.0019528068, 0.1567215323, -0.0003189728, -0.0001771861, 0.0049963254, 0.0001500976, 0.4561998248, -0.0004914128, 0.0001990398, 0.1656275243, 0.0004438886, -0.0826278627, 0.0002965769, -0.2127560079, -0.0056095151, -0.3550229967, 0.2210068256, 0.0016330834, -0.0026877907, -0.0432247519, 0.0135000264, 0.0931916535, 0.0016367997, 0.0002291905, 0.0004364875, 0.0843944848, 0.0041766274, 0.0005500460, 0.0368424729, -0.0004344784, 0.0919362977, 0.0012975156, -0.0046825339, -0.0393901244, 0.0022956983, 0.1283699721, -0.0012480259, 0.0015482919, 0.0084860539, 0.0022571639, -0.0594112277, 0.0001695161, -0.0066739172, 0.0015248840, -0.0002893480, 0.0055462779, 0.0039824406, -0.1098750159, 0.0004958600, 0.2131065726, -0.0006591075, -0.0006113164, 0.0002979934, -0.0008043305, -0.0001896678, -0.0013163097, -0.0138322962, -0.0000231348, 0.0010218215, -0.0002023097, -0.0021595254, -0.3842886686, 0.0118057728, -0.0002475141, -0.0017777736, -0.0003652296, -0.0003762589, -0.0080305599, -0.0026346063, 0.0008358913, -0.0000754439, 0.0013958295, 0.0002343964, -0.1390903145, -0.0001680930, 0.0005093771, 0.0873640180, 0.0004276622, 0.0010920331, 0.0011132291, 0.0001008991, 0.2287556231, 0.0019709792, 0.0007733697, -0.0009050517, -0.0007847896, 0.0022174700, -0.0000019109, 0.0021336116, 0.0033654498, 0.0003385022, -0.0069881193, 0.0011207985, 0.0105265528, 0.0009494786, -0.0001276509, 0.0007067199, 0.0006237297, 0.0017112235, 0.0000000640, 0.0006566643, 0.0002824052, 0.0015467830, -0.0006229228, -0.0014235326, 0.0000528807, 0.0001270752, 0.0005610717, -0.0001452791, -0.0008045247, -0.0002699850, -0.0004333717, 0.0010755423, -0.0268649776, 0.0023869823, 0.0018347364, -0.0007925746, 0.2552553713, 0.0030517268, -0.2546890378, 0.0000341800, -0.0001743282, 0.0026225641, -0.0025678324, -0.0001046670, 0.4960662425, -0.0005774249, -0.0031713529, -0.0000554548, 0.0016841895, -0.0023812947, -0.5818856359, -0.3475639224, 0.0000420528, -0.0044545024, -0.0053530256, 0.0011948121, -0.0007052819, 0.0014272861, 0.0020287090, -0.0788167864, -0.0021691576, 0.0011417875, 0.0164821111, 0.0169411674, 0.0030545534, 0.0656801015, 0.3589998484, -0.0093135992, -0.0035839118, 0.0733260363, 0.0001260665, 0.0788880512, 0.0011905946, -0.0011988046, -0.0012154958, -0.0019018680, 0.0027845094, -0.0022583520, -0.0002017845, 0.0443191156, -0.0007182059, 0.0018325882, -0.2651316524, -0.0023471252, 0.0001221209, -0.0008085456, -0.0050975848, 0.0708808824, -0.0000441555, -0.1349928975, 0.0029889869, -0.0029357257, -0.0005384092, -0.0007104627, 0.0661935210, -0.0064425096, -0.4904718399, -0.1808665693, 0.0011304771, 0.0007149684, -0.0016633259, -0.0021481123, 0.0013983555, -0.0364480540, -0.0000117677, -0.0025085362, -0.0760306790, -0.1567132026, -0.0047893492, -0.0015635276, 0.0026486171, -0.1002190709, -0.0018685039, 0.2674798667, -0.0019949446, -0.0795869827, 0.1494221240, -0.0016607135, 0.0080677997, 0.1929228157, -0.0049795220, -0.0012537800, 0.3128761053, 0.0008262072, 0.0885989144, -0.0010193386, -0.0013104649, 0.0015475260, 0.0039701252, -0.0305679534, 0.4150997698, 0.0167640001, 0.0101553090, -0.0070001422, -0.0000478595, 0.0017566853, -0.0934627652, -0.0004587091, -0.0028725765, 0.0009805672, -0.0008214762, 0.0023574380, 0.0481763259, -0.0138870645, 0.0000005379, 0.0020675936, 0.0018990034, 0.0023504351, 0.0025874618, 0.0007050354, -0.0000565668, -0.0632706210, -0.0001654287, 0.0902189463, -0.0026519177, 0.0904929712, 0.0003995007, 0.0001954457, 0.0058731432, 0.0101641184, -0.2508053184, -0.1544711441, 0.0398427509, 0.3599721193, -0.0463474728, 0.0020014551, 0.1013342440, -0.0128692379, -0.0000114726, -0.1878272593, -0.2480050772, -0.1478105187, -1.0345395803, 0.2865195870, -0.2340383679, -0.1594171673, 0.0015802593, 0.2163580060, -0.0205736496, 0.2238411009, 0.0336073376, -0.0291324724, 0.1285001040, 0.1410100311, -0.7794037461, -0.0672789291, -0.0651261434, 0.2747651339, -0.0007361351, -0.0006140116, 0.0355440527, 0.0827559978, 0.6361033916, -0.1250529438, 0.0239726584, 0.2314704359, 0.0468140244, -0.1487742960, 0.0000079667, 0.0013985918, 0.0047037886, 0.0004427517, -0.1654567420, 0.0011927057, 0.5024052858, -0.4470595717, 0.0664657131, 0.0060327239, -0.0344136842, -0.0046141334, -0.0262402706, -0.0241659693, -0.0045026713, -0.5363554358, 0.2826691270, 0.0221237820, 0.0000684642, -0.0014881539, 0.1741861105, -0.0767369121, 0.1332939416, 0.0011395054, 0.1673122197, 0.2050073892, -0.0005210435};

#endif
