//Numpy array shape [32, 32]
//Min -2.093527317047
//Max 1.039785265923
//Number of zeros 0

#ifndef W8_H_
#define W8_H_

#ifdef __INTELFPGA_COMPILER__
hls_init_on_powerup
#endif
static const model_default_t w8[1024] = {0.0000031617, -0.0000533042, 0.0000109022, -0.0000391975, -0.0000561503, 0.0001189784, -0.0000104048, -0.0000900759, 0.0001110865, -0.0000618330, -0.0000345102, -0.0002729781, 0.0001247511, -0.0001818581, 0.0000282735, -0.0001356979, 0.0000453990, 0.0001085893, -0.0000826307, -0.0002345691, 0.0001843167, -0.0001473071, 0.0004404299, -0.0000003552, -0.0000126151, -0.0002417059, 0.0002765426, 0.0003342570, 0.0000716767, 0.0002156744, -0.0000101407, 0.0000336910, 0.0616459884, 0.0008453964, 0.0023304780, 0.2471816540, 0.3382245600, 0.0014116529, -0.0953633115, -0.0000458433, -0.0855945721, -0.3234098256, 0.1386021525, 0.5988059640, 0.0000473117, -0.0318397395, 0.0001341476, 0.0646889210, -0.0931396633, 0.0028986470, 0.0008016532, 0.1917953789, 0.0043208860, 0.0426484458, 0.0006245750, -0.0009537349, 0.0004098576, -0.0412693545, -0.0008044844, 0.0020647824, 0.0021945650, -0.0018328446, -0.0006124705, -0.0082105165, 0.0001168939, -0.0000398311, 0.0002190857, -0.0001156988, 0.0000900447, 0.0001447694, 0.0000388469, 0.0003317935, 0.0000550489, -0.0000909914, 0.0000803805, 0.0000883518, -0.0001759501, -0.0001240189, 0.0001151732, 0.0000553641, 0.0000069497, 0.0002545940, -0.0000486689, 0.0001818363, -0.0002821042, -0.0000326918, 0.0001815715, -0.0000079037, 0.0001095413, 0.0000254275, 0.0000234129, -0.0001307226, -0.0002387844, -0.0000216830, -0.0000680063, -0.0002078891, -0.2136474699, 0.0003398870, 0.0257135499, 0.0416225828, -0.2745563686, -0.0857863724, 0.1630060673, 0.0000696122, 0.4621006846, 0.0005610345, 0.0469143949, -0.0005304911, -0.0000099409, -0.0044877203, 0.0000594221, -0.0004097772, -0.0695027113, -0.1302175373, -0.0030018874, 0.8123610616, 0.3637135625, 0.0002319256, 0.0565209240, -0.3174265027, -0.0249906778, -0.0001000646, 0.1985887438, 0.2105091512, -0.0026892684, 0.0002505015, -0.1383281648, -0.3859673142, -0.0346941650, 0.0002617204, 0.0001286171, 0.3891175687, 0.0596277006, 0.1717301309, -0.0012336570, -0.0000039866, -0.2020328939, 0.5369713902, 0.3123118579, -0.2725922763, 0.0000147900, 0.0025348661, -0.0000101970, -0.0094304224, 0.1149222553, 0.1617771983, 0.0619728602, -0.0035170920, -0.0041015171, 0.0007425660, 0.0336953029, -0.1156679541, 0.0000431998, 0.1592517048, 0.0019563648, 0.0543827936, -0.2661253512, 0.0021422720, 0.1651977748, -2.0935273170, 0.1257254034, -0.0000685115, -0.0020254434, -0.0005664222, 0.2670776248, -0.0001347739, -0.0007143716, -0.0000342298, -0.0681454018, -0.0019524441, -0.0584400445, -0.0002726167, 0.0000085995, 0.0391135626, 0.0001443012, -0.0020897472, 0.0000439688, 0.0001289291, 0.0017207211, 0.0010788668, -0.0040440341, 0.0007560423, -0.0002283413, 0.0007174396, 0.0008330382, -0.0034089012, -0.0008497075, 0.0002683474, -0.0003697209, 0.0017869819, 0.0002082325, 0.0020612404, 0.0929651633, -0.0001464228, -0.0012396959, 0.2547951639, 0.0006090027, 0.1669385582, -0.0337913856, 0.0000261069, 0.1043382213, 0.2514245808, 0.0409032367, -0.5305898786, 0.0000445510, 0.3444435894, 0.0000134566, -0.0003465077, -0.0384798422, 0.1541037858, -0.1243370548, 0.0030046420, -0.0931702107, -0.0006798173, 0.1647966355, -0.0056276806, 0.0188672636, 0.0006995553, -0.5047042370, 0.1089142859, 0.0012755377, 0.2419981062, 0.0003076535, -0.3688748777, 0.3560655713, 0.0000484847, -1.6951317787, 0.0304126889, 0.0922189876, -0.2596104741, 0.0003498899, -0.0001226994, 0.0051631285, -0.0002718956, -1.2254866362, 0.0034419838, -0.0000321285, -0.0043851174, -0.0002585499, 0.0004334860, 0.0011042837, 0.5697218180, -0.5883049369, 0.2694591582, 0.0045063221, 0.0007996698, -0.0073741302, 0.3413814008, 0.0012369944, 0.0017586102, -0.0024141497, 0.0038335798, 0.0029661669, 0.3170846701, 0.0626434162, -0.4496105611, -0.0000161376, -0.0000236146, 0.0001010116, 0.0001327141, 0.0000081402, -0.0000902785, 0.0432901606, -0.0000756256, -0.0000063884, 0.0000147394, 0.0000031359, -0.0000303737, 0.0002345573, 0.0000279263, 0.0000118914, 0.0000078070, 0.0000109834, 0.0000054326, 0.0000973251, 0.0000511568, -0.0003050447, -0.0000493125, -0.0001128826, -0.0000179907, -0.0000319005, -0.0001485405, -0.0000998277, 0.0000352723, 0.0000123163, -0.0000427258, 0.0000086774, -0.0000310796, -0.2192008644, -0.0003817836, 0.0006057847, -0.0572619736, -0.0044297045, -0.0010119134, 0.0009124841, -0.0001079910, 0.3381360769, 0.3272824585, 0.0011253860, -0.1488082856, 0.0000246665, 0.1000120640, -0.0000425827, 0.0003158395, 0.0887865573, -0.0015177162, 0.0432483405, -0.0024470387, 0.0007538645, -0.1697532684, 0.0011490926, -0.0020787180, 0.0000399819, 0.1474556625, 0.0021013585, -0.0038166889, -0.0008491746, -0.0000151723, -0.0004312953, 0.0034572079, -0.4855048954, 0.0002718391, 0.1863707453, -0.0003486589, -0.2562043071, -0.0435825847, 0.0009104105, -0.0000104046, 0.0059297676, 0.0070436196, 0.1314084530, 0.0043005468, 0.0000488566, -0.1997627467, 0.0000339898, -0.0004378467, 0.2796690762, 0.0012216681, 0.0654555857, -0.3506828249, 0.0020135241, -0.0005918811, 0.0015878822, -0.1551120877, 0.0016660885, 0.3795978725, 0.7738724351, -0.0578198582, 0.0022582440, -0.1066326946, 0.2939300835, 0.5707510710, -0.3682121038, -0.0000619472, 0.4014694989, -0.4541290104, -0.0046688537, -0.1240880415, 0.4862614572, 0.0000623354, 0.0309954658, -0.0841141492, -0.1694886237, 0.1234966591, 0.0000168849, 0.0693737417, -0.0000156669, -0.0476794131, 0.1113322824, 0.3015754521, 0.0031469767, -0.2252660245, -0.0033746832, -0.0012141480, 0.0004893803, -0.0004193387, 0.0005577460, -0.0027898261, -0.0069743018, -0.0425705090, 0.0023287889, -0.2467269748, 0.0558224469, 0.5691464543, 0.0010532727, 0.0000669150, -0.0010318826, -0.0003606595, 0.0002570057, -0.0001804763, -0.0002694724, -0.0001500816, 0.0002759537, 0.0002912612, -0.0009119334, -0.0011330922, 0.0000351511, 0.2053665221, 0.0000168753, -0.0001829946, -0.0007176676, -0.0006183113, -0.0000370367, 0.0004709992, -0.0004191498, -0.0005809073, 0.0270383153, -0.0003789231, -0.0000476813, -0.0005054588, 0.0000217003, -0.0003810709, -0.0007319089, 0.0019995454, -0.0006321943, 0.0000055839, 0.0001837236, 0.0000320521, -0.0001628042, 0.0003635804, -0.0001498593, 0.0000369031, 0.0002206178, 0.0000175222, 0.0002463920, -0.0000727419, -0.0001169895, -0.0000235733, 0.0002717575, 0.0001296258, -0.0001038763, -0.0000419996, -0.0000341210, 0.0002494360, 0.0000265898, -0.0000729029, -0.0002236015, 0.0000916792, 0.0003342711, 0.0000199522, -0.0001347313, -0.0001253589, 0.0000664372, 0.0002182419, -0.0002083256, -0.0000884872, -0.0000282638, -0.0001196073, 0.0061786165, 0.0002615944, 0.0054832501, -0.1155398041, 0.0545486547, -0.0589505024, -0.0004499420, 0.0001241659, 0.0578761399, 0.1055473089, -1.1771197319, 0.0882119015, -0.0000097086, -0.0382209048, -0.0001216457, -1.0788197517, 0.0643529221, 0.1848786473, -0.0817387477, 0.2174321264, 0.0001454882, -0.0157831386, -0.0028729739, 0.5829291940, -0.0002387546, 0.0092819752, -0.0016619869, -0.0757112578, 0.0020956276, -0.0031571914, 0.3163762093, -0.0027917388, 0.4958025813, 0.0751816556, 0.0737679899, -0.0023277525, 0.2606495321, 0.0000391189, -0.1928305924, 0.0000282233, -0.4800018966, -0.0014740617, 0.0119118951, 0.0771475360, -0.0000067056, 0.2469264865, 0.0000164267, 0.3418801725, 0.2034449279, 0.4770087600, -0.3035271168, -0.1956455112, -0.2457596064, -0.0003204101, -0.0020397066, 0.6486238837, 0.3148328364, 0.1803758889, -0.0066405316, -0.3966414034, 0.0016396365, -0.0024420917, 0.4150676131, 0.1100126877, -0.0105423890, 0.0008801716, 0.3283728361, 0.0009604131, 0.0003187526, 0.0018221334, -0.0022933267, -0.0001220960, 0.3426738083, -0.0138524640, 0.2268655300, 0.1945789754, -0.0000239179, -0.3075744808, -0.0000109274, -0.0554310866, -0.0056247832, -0.3131555617, 0.0949130580, 0.1364757568, 0.3407992125, 0.0802732185, -0.1928145736, -0.0017764244, 0.0005051550, 0.0035102880, 0.5257976055, 0.0008300157, -0.0032863559, -0.1699908525, 0.1207999140, -0.0128740920, 0.3004016280, 0.0001485202, -0.0286756866, 0.1543554217, 0.0097983070, 0.3002667427, -0.0318941548, 0.0000230780, -0.0012449535, -0.0062358724, 0.0706325546, -0.0029816935, -0.0000308777, 0.2993704379, 0.0000542743, 0.2803611159, -0.3113677204, -0.1466360837, 0.0445843488, 0.2926106751, -0.0020386644, 0.0716556907, -0.1185757592, -0.0056036795, -0.0017414462, -0.0333736986, -0.5222755671, 0.1960937381, -0.0014176581, 0.4949109554, -0.2505370975, 0.0170145668, 0.0002146044, -0.0000796332, 0.0000014128, -0.0001163976, 0.0000466309, -0.0000189389, 0.0000694579, 0.0001277982, -0.0000494123, 0.0000681145, -0.0002604362, -0.0000018674, 0.0000892409, 0.0000460341, -0.0000914740, -0.0000002355, 0.0000351426, -0.0000000026, -0.0000876784, -0.0000819562, 0.0001075592, 0.0001275545, -0.0000235295, -0.0001933706, -0.0001196340, -0.0000522110, -0.0000933599, -0.0001800119, -0.0001683166, -0.0001107045, 0.0001703423, -0.0000852475, 0.0000685131, 0.0001456289, 0.0001734457, 0.0000517303, -0.0001471254, 0.0000420342, -0.0000878059, -0.0000804904, 0.0001818297, -0.0000893905, 0.0000911898, 0.0000271225, 0.0000571233, -0.0000616745, -0.0000783526, 0.0001156301, -0.0000812561, 0.0000195443, 0.0001075552, 0.0000806446, -0.0000825921, -0.0000182199, 0.0000178496, 0.0000002935, 0.0000880110, -0.0001265596, -0.0000902316, -0.0001457684, -0.0001405348, 0.0003857644, -0.0000055777, 0.0002287942, -0.1834260076, 0.0006595717, 0.1158470660, -1.3160836697, -0.0035736570, -0.2162647396, 0.0632058680, 0.0001000477, 0.2607410848, -0.0045847781, 0.1432314664, -0.0036005126, 0.0000386579, -0.0761282593, 0.0001115293, 0.0141445594, 0.1184756458, 0.0106018940, 0.0314208902, -0.0315956399, 0.0004460514, -0.0007329057, -0.0022970389, 0.0970074087, 0.0017499118, 0.0027297614, -0.0032116796, 0.0244303960, 0.0846120268, -0.1387590319, 0.0636051372, 1.0397852659, -0.2381605208, 0.0000856639, 0.0033608973, -0.2235777080, -0.1528817713, 0.0804516152, 0.0014604486, -0.0000778458, 0.5193198323, 0.3951134682, 0.0051069609, -0.1329114139, 0.0000034214, 0.1658044308, 0.0000418447, 0.0002089007, 0.0878880769, -0.0363011882, -0.0936861560, 0.1392646134, 0.0054953424, -0.4173113406, 0.2503107786, -0.1589768380, 0.0012137573, 0.5431422591, 0.3696669340, -0.0031449192, 0.0004224853, -0.0026838272, 0.0009432813, 0.0022563310, -0.6559253335, 0.0003209381, 0.1849400550, 0.0036640540, -0.0066992901, -0.0104889153, 0.2668913305, 0.0000543275, -0.0003335088, 0.0004189420, 0.2662928700, -0.0016260203, -0.0000661970, -0.0005081311, -0.0001497193, 0.1496134251, 0.0893499106, 0.1018188521, -0.0157361627, -0.1674550772, -0.0000606293, -0.0043136263, -0.0039020462, -0.0039183917, 0.3393504918, 0.0018424053, 0.0007361430, -0.0573728271, 0.0004453458, -0.0030143019, 0.0120791085, 0.0024398048, 0.0000196916, 0.0000620075, -0.0000215277, -0.0000389385, -0.0000466116, 0.0000257776, -0.0000450765, 0.0000329401, 0.0000170684, -0.0000207447, -0.0001377752, 0.0000067781, 0.0000006185, -0.0000077916, -0.0001294014, 0.0000666297, 0.0000969098, 0.0001714202, -0.0000306785, -0.0000754545, 0.0000010945, 0.0000026166, -0.0000520613, -0.0001582760, -0.0000289539, 0.0000915457, 0.0000483540, -0.0000866671, 0.0001709435, 0.0001069245, 0.0000881515, -0.0001183520, 0.0007973727, 0.0000749723, 0.0197438542, 0.4734704792, 0.0122540575, 0.2017865181, 0.1769406348, -0.0000200202, -0.0014876928, -0.0031143434, 0.0202926658, 0.0035873160, 0.0000075197, -0.0077146189, 0.0000216135, 0.1233957782, -0.0040572863, 0.0005972947, -0.0006345592, 0.6305131912, 0.0952099711, 0.0361233428, 0.2477595508, -0.2456162721, -0.1142797992, -0.0020905845, 0.0091519887, 0.3963839412, -0.0139129665, 0.0012298226, -0.0012896928, -1.1353001595, 0.0013219698, -0.0000081154, -0.0019414481, 0.1328404546, 0.2450559437, -0.0017496941, 0.0272168685, 0.0001068793, -0.0047424878, -0.1350042522, -0.0008959303, 0.1033520773, 0.0000475777, -0.0035871519, -0.0000746424, 0.0008961444, -0.0070319790, -0.0012153505, 0.2333881110, 0.4795392752, 0.0015488005, 0.2808258533, 0.0383363552, -0.0028406933, -0.1435810626, -0.3413847983, 0.0004717340, 0.1651126891, -0.0003337554, 0.0025411281, -0.1016334370, -0.0023696497, 0.7196944952, -0.0001235921, -0.0017636619, -0.2569139898, 0.2680004537, -0.1860553920, -0.0996632576, 0.0000621603, -0.2486343235, 0.0154421041, -0.0478858612, 0.0306295492, 0.0000188954, 0.0141200759, -0.0000572115, -0.0077788630, 0.3932383955, 0.0797618777, -0.1592775434, -0.1693100333, -0.2971912026, -0.0015507239, -0.0008384862, 0.3298905492, -0.0001116226, 0.2066640109, -0.2401714027, -0.1097522750, 0.0015329714, -0.0007739041, 0.1781855971, 0.2776911557, 0.1028553322, 0.0002641967, 0.0005618382, 0.0003941233, 0.2982471585, -0.0390385017, -0.0002231374, -0.0001238526, -0.0019456174, -0.1454384178, -0.2244688123, 0.0318813585, 0.0000134050, -0.0237363782, -0.0000053698, 0.0011945729, -0.1399596035, 0.0011441032, -0.0142348399, 0.0848258883, 0.0008958949, 0.2302674055, 0.1097485349, 0.0019761364, 0.0020488880, -0.2233872563, -0.0017042477, 0.1713941544, 0.0009891376, 0.0950403288, -0.0020381378, -0.0083496552, -0.0008476068, 0.0002543257, 0.0012948036, -0.0072685210, 0.0006332955, -0.0094349468, 0.0006994769, -0.0000132988, 0.0016880613, -0.0603386238, -1.0006297827, 0.0055720787, 0.0001001555, -0.0024631985, 0.0000511592, 0.0003232262, 0.0021434980, 0.1876630038, -0.4780834913, 0.2656936944, 0.0004295368, 0.0021808962, 0.0000716202, 0.6442525983, 0.0016708833, -0.0005259466, -0.0031892513, 0.0021871510, 0.0022957793, 0.0010471630, 0.0918520913, 0.0338256396, 0.0036462492, -0.0001023588, 0.3763718009, -0.1271785200, -0.0006458588, 0.0004132634, -0.0207657982, -0.0000609337, 0.0010444015, -0.0000354344, 0.1701406986, 0.3363433480, -0.0000198890, 0.0596489608, -0.0000010332, 0.0044919257, 0.0625019968, 0.1565168202, -0.4864721000, -0.0021469758, 0.0017410944, -0.0000265300, -0.8957014084, 0.0010272147, 0.1680022031, -0.0003797908, -0.7830731273, 0.0028409436, 0.0823388770, -0.0012345125, 0.0924310982, 0.0522117913, -0.8404567242, -0.0002457416, -0.0030053263, 0.0853568241, -0.0006299301, -0.0973640084, -0.0045545651, 0.0000525068, 0.2984122932, -0.1011599451, -0.0015729407, 0.0978838131, 0.0000264692, -0.0999901593, 0.0000044397, -0.0592242815, -0.0011223023, 0.0039412561, 0.0557282418, 0.2677601576, -0.1522752643, 0.0031450635, -0.1848955303, 0.0006283842, -0.0431507118, -0.0403734371, -0.0008042831, -0.3040088415, 0.1242574528, -0.5268592834, 0.0311702173, 0.8896004558, 0.0964956582, 0.0003263589, 0.5002588630, 0.0145567013, 0.0654468313, -0.0027562338, -1.5443626642, -0.0000184923, -0.0005009988, 0.0750445575, 0.2712906301, -0.0019261800, -0.0000598825, -0.0019150969, -0.0000008432, 0.0095389066, -0.0003907077, 0.1656569690, -1.4126069546, 0.0088359481, 0.0034671586, -0.0014321916, -0.7497076988, 0.5285520554, -0.0010679953, -0.0052383645, 0.0500625111, 0.0006997536, -0.0054448871, 0.6200386882, 0.0011366494, -0.0115503529};

#endif
